15 10
Text -0.012812 -0.023242 -0.022201 -0.011554 -0.033596 -0.010794 -0.037616 -0.028392 -0.000021 0.039963
the 0.048580 -0.043340 -0.042704 -0.036452 0.032734 0.029224 -0.042812 0.025610 -0.047790 -0.033120
of -0.018138 -0.028511 0.013329 -0.010189 0.013866 -0.041749 -0.034055 -0.005065 0.017871 -0.045118
This -0.020872 -0.000175 0.028427 0.022399 0.017148 0.028070 0.037086 -0.012803 0.018836 -0.018089
second -0.049871 -0.037918 0.038029 0.007826 -0.020468 0.002826 -0.019752 -0.045751 -0.035137 0.007962
made 0.015984 0.019738 -0.043102 -0.030094 0.031162 0.017846 0.030752 -0.029229 -0.023850 0.000852
Number -0.028879 0.024048 -0.035692 0.001170 0.015755 0.035736 -0.016452 0.014593 -0.036443 0.002289
first -0.006901 0.027139 -0.046212 0.031981 -0.016575 0.038962 -0.046380 -0.049006 -0.010207 -0.046712
longer. -0.043924 -0.008601 0.028344 0.008184 0.006390 -0.017565 -0.003960 0.039005 -0.005201 -0.039999
three. -0.039198 0.006771 -0.026146 0.038273 -0.038217 0.015270 0.039415 -0.044057 0.022399 0.045339
number -0.019959 -0.039448 -0.044692 0.042713 0.016128 0.004388 0.036356 0.046986 0.034413 -0.049451
is 0.039288 0.040688 0.009209 -0.011646 0.043743 0.046535 0.014689 -0.029322 0.020889 0.046664
four. 0.016182 0.033055 0.019913 -0.040227 -0.049913 -0.006224 0.023279 0.005801 -0.029536 0.007230
document. -0.020828 0.046014 -0.019319 -0.023148 0.039574 0.015719 0.023121 0.021722 -0.023137 0.023709
document 0.004133 -0.014444 -0.034317 0.043464 -0.035081 -0.032974 -0.035835 0.016560 0.042570 0.041657
