15 10
of -0.026605 -0.032241 -0.036697 -0.020166 0.030186 -0.025259 -0.038977 -0.014402 -0.020910 0.003974
the -0.046979 0.033906 -0.027435 -0.017834 -0.005924 -0.015439 -0.040162 -0.014934 -0.041494 -0.009910
Text -0.005810 0.035364 -0.012985 0.005031 -0.037120 0.016335 -0.001430 0.020309 0.034071 0.007213
number 0.034879 -0.010585 0.002233 -0.028167 0.030031 -0.026714 -0.010262 -0.046471 -0.029638 -0.039444
is 0.017364 -0.018002 -0.007004 0.001890 -0.038850 -0.018118 -0.016527 -0.039564 0.010156 -0.041525
first -0.044963 -0.006653 0.006039 -0.002869 -0.044229 -0.037663 -0.034531 -0.003742 -0.027375 0.024894
second 0.043254 0.025851 0.014336 0.042538 -0.030814 0.043193 0.019647 -0.042630 -0.023642 0.028436
longer. -0.026861 0.011396 0.003327 -0.010982 -0.026916 0.020770 -0.028607 0.019838 0.017405 -0.044961
Number -0.004974 -0.017649 0.038070 0.017454 0.017842 0.009141 0.037851 -0.016303 0.013587 -0.008101
made 0.039691 -0.029645 0.007588 0.025015 -0.038906 0.038221 0.006178 0.012226 -0.029845 0.005291
This 0.043611 0.026679 0.002974 -0.039245 -0.007667 -0.029554 -0.010347 -0.027073 -0.009100 -0.027256
document 0.005461 -0.036881 -0.029375 0.002471 -0.005315 -0.013650 -0.012437 -0.001313 0.023301 0.008873
document. -0.027784 0.019376 0.012463 0.004166 0.002531 -0.034049 -0.045148 -0.012044 -0.038217 -0.024828
four. -0.042887 -0.004265 0.047347 0.016046 0.008605 0.032328 0.033615 0.042326 -0.030254 0.014736
three. -0.019026 0.003932 0.005552 0.033773 -0.038744 -0.049510 0.023521 0.011805 -0.014427 -0.027447
